%YAML:1.0
---
opencv_ml_em:
   format: 3
   training_params:
      nclusters: 3
      cov_mat_type: spherical
      epsilon: 1.0000000000000001e-01
      iterations: 100
   weights: !!opencv-matrix
      rows: 1
      cols: 3
      dt: d
      data: [ 1.7143231897375086e-01, 6.6081234670169753e-01,
          1.6775533432454515e-01 ]
   means: !!opencv-matrix
      rows: 3
      cols: 3
      dt: d
      data: [ 1.0677193787425161e+02, 3.6781056060621161e+01,
          1.0649899883939592e+02, 1.0719851136414546e+02,
          5.0435581257112084e+01, 7.1513710378263667e+01,
          9.4467150870415566e+01, 9.8010534397001933e+01,
          7.4947604743701561e+01 ]
   covs:
      - !!opencv-matrix
         rows: 3
         cols: 3
         dt: d
         data: [ 1.9354217502637428e+02, 0., 0., 0.,
             1.9354217502637428e+02, 0., 0., 0., 1.9354217502637428e+02 ]
      - !!opencv-matrix
         rows: 3
         cols: 3
         dt: d
         data: [ 5.6461123639317009e+01, 0., 0., 0.,
             5.6461123639317009e+01, 0., 0., 0., 5.6461123639317009e+01 ]
      - !!opencv-matrix
         rows: 3
         cols: 3
         dt: d
         data: [ 3.8252887264539686e+02, 0., 0., 0.,
             3.8252887264539686e+02, 0., 0., 0., 3.8252887264539686e+02 ]
