%YAML:1.0
---
opencv_ml_em:
   format: 3
   training_params:
      nclusters: 3
      cov_mat_type: spherical
      epsilon: 1.0000000000000001e-01
      iterations: 100
   weights: !!opencv-matrix
      rows: 1
      cols: 3
      dt: d
      data: [ 6.0383004160788545e-01, 8.8267957741895414e-02,
          3.0790200065021739e-01 ]
   means: !!opencv-matrix
      rows: 3
      cols: 3
      dt: d
      data: [ 1.0246269620453207e+02, 1.2382731848112388e+02,
          9.9820454688052280e+01, 7.9100250083135762e+01,
          3.3698640907151109e+01, 8.4341191897437668e+01,
          1.0216093240078462e+02, 1.0468030583659566e+02,
          1.4571532524190508e+02 ]
   covs:
      - !!opencv-matrix
         rows: 3
         cols: 3
         dt: d
         data: [ 3.9754304496167100e+02, 0., 0., 0.,
             3.9754304496167100e+02, 0., 0., 0., 3.9754304496167100e+02 ]
      - !!opencv-matrix
         rows: 3
         cols: 3
         dt: d
         data: [ 7.8667483019754457e+02, 0., 0., 0.,
             7.8667483019754457e+02, 0., 0., 0., 7.8667483019754457e+02 ]
      - !!opencv-matrix
         rows: 3
         cols: 3
         dt: d
         data: [ 4.5691927035210125e+02, 0., 0., 0.,
             4.5691927035210125e+02, 0., 0., 0., 4.5691927035210125e+02 ]
