%YAML:1.0
---
opencv_ml_em:
   format: 3
   training_params:
      nclusters: 3
      cov_mat_type: spherical
      epsilon: 1.0000000000000001e-01
      iterations: 100
   weights: !!opencv-matrix
      rows: 1
      cols: 3
      dt: d
      data: [ 5.9751947177233056e-01, 1.0340525291694398e-01,
          2.9907527531072853e-01 ]
   means: !!opencv-matrix
      rows: 3
      cols: 3
      dt: d
      data: [ 1.0557789077916635e+02, 9.9952380602580376e+01,
          3.1384228749265692e+01, 8.6239646943243059e+01,
          4.5743620753947532e+01, 1.4362556998931814e+02,
          1.0204914103795568e+02, 1.3200300692336199e+02,
          3.0491016155767205e+01 ]
   covs:
      - !!opencv-matrix
         rows: 3
         cols: 3
         dt: d
         data: [ 9.3345184410107848e+01, 0., 0., 0.,
             9.3345184410107848e+01, 0., 0., 0., 9.3345184410107848e+01 ]
      - !!opencv-matrix
         rows: 3
         cols: 3
         dt: d
         data: [ 1.0161005171475167e+03, 0., 0., 0.,
             1.0161005171475167e+03, 0., 0., 0., 1.0161005171475167e+03 ]
      - !!opencv-matrix
         rows: 3
         cols: 3
         dt: d
         data: [ 2.7241524075713778e+02, 0., 0., 0.,
             2.7241524075713778e+02, 0., 0., 0., 2.7241524075713778e+02 ]
