%YAML:1.0
---
opencv_ml_em:
   format: 3
   training_params:
      nclusters: 3
      cov_mat_type: spherical
      epsilon: 1.0000000000000001e-01
      iterations: 100
   weights: !!opencv-matrix
      rows: 1
      cols: 3
      dt: d
      data: [ 4.0703247353733918e-01, 3.4942453428642251e-01,
          2.4354299217623723e-01 ]
   means: !!opencv-matrix
      rows: 3
      cols: 3
      dt: d
      data: [ 1.0070346110880332e+02, 1.1902834750994614e+02,
          8.4025569303578379e+01, 9.0751208040410091e+01,
          4.2500455712192448e+01, 1.2122034007889576e+02,
          1.0443956842080529e+02, 7.1216347649923478e+01,
          6.5053911448062962e+01 ]
   covs:
      - !!opencv-matrix
         rows: 3
         cols: 3
         dt: d
         data: [ 4.9425651575148368e+02, 0., 0., 0.,
             4.9425651575148368e+02, 0., 0., 0., 4.9425651575148368e+02 ]
      - !!opencv-matrix
         rows: 3
         cols: 3
         dt: d
         data: [ 7.1924103643935973e+02, 0., 0., 0.,
             7.1924103643935973e+02, 0., 0., 0., 7.1924103643935973e+02 ]
      - !!opencv-matrix
         rows: 3
         cols: 3
         dt: d
         data: [ 2.5313461388999153e+02, 0., 0., 0.,
             2.5313461388999153e+02, 0., 0., 0., 2.5313461388999153e+02 ]
